digraph Tree {
node [shape=box, fontname="helvetica"] ;
edge [fontname="helvetica"] ;
0 [label="gill-color <= 3.5\ngini = 0.499\nsamples = 5686\nvalue = [2956, 2730]\nclass = 1"] ;
1 [label="population <= 3.5\ngini = 0.277\nsamples = 2304\nvalue = [382, 1922]\nclass = 0"] ;
0 -> 1 [labeldistance=2.5, labelangle=45, headlabel="True"] ;
2 [label="spore-print-color <= 1.5\ngini = 0.224\nsamples = 405\nvalue = [353.0, 52.0]\nclass = 1"] ;
1 -> 2 ;
3 [label="gini = 0.0\nsamples = 32\nvalue = [0, 32]\nclass = 0"] ;
2 -> 3 ;
4 [label="gill-size <= 0.5\ngini = 0.101\nsamples = 373\nvalue = [353, 20]\nclass = 1"] ;
2 -> 4 ;
5 [label="gini = 0.0\nsamples = 353\nvalue = [353, 0]\nclass = 1"] ;
4 -> 5 ;
6 [label="gini = 0.0\nsamples = 20\nvalue = [0, 20]\nclass = 0"] ;
4 -> 6 ;
7 [label="stalk-root <= 2.0\ngini = 0.03\nsamples = 1899\nvalue = [29, 1870]\nclass = 0"] ;
1 -> 7 ;
8 [label="stalk-surface-below-ring <= 0.5\ngini = 0.01\nsamples = 1879\nvalue = [9, 1870]\nclass = 0"] ;
7 -> 8 ;
9 [label="bruises <= 0.5\ngini = 0.428\nsamples = 29\nvalue = [9, 20]\nclass = 0"] ;
8 -> 9 ;
10 [label="gini = 0.0\nsamples = 9\nvalue = [9, 0]\nclass = 1"] ;
9 -> 10 ;
11 [label="gini = 0.0\nsamples = 20\nvalue = [0, 20]\nclass = 0"] ;
9 -> 11 ;
12 [label="gini = 0.0\nsamples = 1850\nvalue = [0, 1850]\nclass = 0"] ;
8 -> 12 ;
13 [label="gini = 0.0\nsamples = 20\nvalue = [20, 0]\nclass = 1"] ;
7 -> 13 ;
14 [label="spore-print-color <= 1.5\ngini = 0.364\nsamples = 3382\nvalue = [2574, 808]\nclass = 1"] ;
0 -> 14 [labeldistance=2.5, labelangle=-45, headlabel="False"] ;
15 [label="stalk-root <= 0.5\ngini = 0.215\nsamples = 499\nvalue = [61, 438]\nclass = 0"] ;
14 -> 15 ;
16 [label="gini = 0.0\nsamples = 61\nvalue = [61, 0]\nclass = 1"] ;
15 -> 16 ;
17 [label="gini = 0.0\nsamples = 438\nvalue = [0, 438]\nclass = 0"] ;
15 -> 17 ;
18 [label="gill-size <= 0.5\ngini = 0.224\nsamples = 2883\nvalue = [2513.0, 370.0]\nclass = 1"] ;
14 -> 18 ;
19 [label="stalk-color-below-ring <= 1.5\ngini = 0.049\nsamples = 2424\nvalue = [2363, 61]\nclass = 1"] ;
18 -> 19 ;
20 [label="gini = 0.0\nsamples = 26\nvalue = [0, 26]\nclass = 0"] ;
19 -> 20 ;
21 [label="cap-color <= 0.5\ngini = 0.029\nsamples = 2398\nvalue = [2363, 35]\nclass = 1"] ;
19 -> 21 ;
22 [label="population <= 2.5\ngini = 0.49\nsamples = 28\nvalue = [16, 12]\nclass = 1"] ;
21 -> 22 ;
23 [label="gini = 0.0\nsamples = 16\nvalue = [16, 0]\nclass = 1"] ;
22 -> 23 ;
24 [label="gini = 0.0\nsamples = 12\nvalue = [0, 12]\nclass = 0"] ;
22 -> 24 ;
25 [label="ring-number <= 1.5\ngini = 0.019\nsamples = 2370\nvalue = [2347.0, 23.0]\nclass = 1"] ;
21 -> 25 ;
26 [label="gini = 0.0\nsamples = 2120\nvalue = [2120, 0]\nclass = 1"] ;
25 -> 26 ;
27 [label="spore-print-color <= 6.0\ngini = 0.167\nsamples = 250\nvalue = [227, 23]\nclass = 1"] ;
25 -> 27 ;
28 [label="gini = 0.0\nsamples = 23\nvalue = [0, 23]\nclass = 0"] ;
27 -> 28 ;
29 [label="gini = 0.0\nsamples = 227\nvalue = [227, 0]\nclass = 1"] ;
27 -> 29 ;
30 [label="stalk-shape <= 0.5\ngini = 0.44\nsamples = 459\nvalue = [150, 309]\nclass = 0"] ;
18 -> 30 ;
31 [label="habitat <= 1.5\ngini = 0.327\nsamples = 389\nvalue = [80, 309]\nclass = 0"] ;
30 -> 31 ;
32 [label="gini = 0.0\nsamples = 215\nvalue = [0, 215]\nclass = 0"] ;
31 -> 32 ;
33 [label="bruises <= 0.5\ngini = 0.497\nsamples = 174\nvalue = [80, 94]\nclass = 0"] ;
31 -> 33 ;
34 [label="cap-color <= 6.5\ngini = 0.111\nsamples = 85\nvalue = [80, 5]\nclass = 1"] ;
33 -> 34 ;
35 [label="gini = 0.0\nsamples = 80\nvalue = [80, 0]\nclass = 1"] ;
34 -> 35 ;
36 [label="gini = 0.0\nsamples = 5\nvalue = [0, 5]\nclass = 0"] ;
34 -> 36 ;
37 [label="gini = 0.0\nsamples = 89\nvalue = [0, 89]\nclass = 0"] ;
33 -> 37 ;
38 [label="gini = 0.0\nsamples = 70\nvalue = [70, 0]\nclass = 1"] ;
30 -> 38 ;
}